digraph Tree {
node [shape=box, style="filled, rounded", color="black", fontname="helvetica"] ;
edge [fontname="helvetica"] ;
0 [label="alcohol <= 1.024\ngini = 0.246\nsamples = 914\nvalue = [783, 131]\nclass = Not Good", fillcolor="#e9965a"] ;
1 [label="volatile acidity <= -0.871\ngini = 0.152\nsamples = 762\nvalue = [699.0, 63.0]\nclass = Not Good", fillcolor="#e78c4b"] ;
0 -> 1 [labeldistance=2.5, labelangle=45, headlabel="True"] ;
2 [label="total sulfur dioxide <= -0.043\ngini = 0.391\nsamples = 124\nvalue = [91, 33]\nclass = Not Good", fillcolor="#eeaf81"] ;
1 -> 2 ;
3 [label="fixed acidity <= 1.883\ngini = 0.473\nsamples = 78\nvalue = [48, 30]\nclass = Not Good", fillcolor="#f5d0b5"] ;
2 -> 3 ;
4 [label="density <= -0.697\ngini = 0.441\nsamples = 70\nvalue = [47.0, 23.0]\nclass = Not Good", fillcolor="#f2bf9a"] ;
3 -> 4 ;
5 [label="gini = 0.444\nsamples = 18\nvalue = [6, 12]\nclass = Good", fillcolor="#9ccef2"] ;
4 -> 5 ;
6 [label="gini = 0.334\nsamples = 52\nvalue = [41, 11]\nclass = Not Good", fillcolor="#eca36e"] ;
4 -> 6 ;
7 [label="density <= 1.764\ngini = 0.219\nsamples = 8\nvalue = [1, 7]\nclass = Good", fillcolor="#55abe9"] ;
3 -> 7 ;
8 [label="gini = 0.0\nsamples = 7\nvalue = [0, 7]\nclass = Good", fillcolor="#399de5"] ;
7 -> 8 ;
9 [label="gini = 0.0\nsamples = 1\nvalue = [1, 0]\nclass = Not Good", fillcolor="#e58139"] ;
7 -> 9 ;
10 [label="Id <= -1.698\ngini = 0.122\nsamples = 46\nvalue = [43, 3]\nclass = Not Good", fillcolor="#e78a47"] ;
2 -> 10 ;
11 [label="gini = 0.0\nsamples = 1\nvalue = [0, 1]\nclass = Good", fillcolor="#399de5"] ;
10 -> 11 ;
12 [label="free sulfur dioxide <= 3.6\ngini = 0.085\nsamples = 45\nvalue = [43, 2]\nclass = Not Good", fillcolor="#e68742"] ;
10 -> 12 ;
13 [label="gini = 0.044\nsamples = 44\nvalue = [43, 1]\nclass = Not Good", fillcolor="#e6843e"] ;
12 -> 13 ;
14 [label="gini = 0.0\nsamples = 1\nvalue = [0, 1]\nclass = Good", fillcolor="#399de5"] ;
12 -> 14 ;
15 [label="alcohol <= -0.432\ngini = 0.09\nsamples = 638\nvalue = [608, 30]\nclass = Not Good", fillcolor="#e68743"] ;
1 -> 15 ;
16 [label="Id <= -1.652\ngini = 0.017\nsamples = 352\nvalue = [349, 3]\nclass = Not Good", fillcolor="#e5823b"] ;
15 -> 16 ;
17 [label="chlorides <= -0.274\ngini = 0.188\nsamples = 19\nvalue = [17, 2]\nclass = Not Good", fillcolor="#e89050"] ;
16 -> 17 ;
18 [label="gini = 0.444\nsamples = 3\nvalue = [1, 2]\nclass = Good", fillcolor="#9ccef2"] ;
17 -> 18 ;
19 [label="gini = 0.0\nsamples = 16\nvalue = [16, 0]\nclass = Not Good", fillcolor="#e58139"] ;
17 -> 19 ;
20 [label="fixed acidity <= 1.768\ngini = 0.006\nsamples = 333\nvalue = [332, 1]\nclass = Not Good", fillcolor="#e5813a"] ;
16 -> 20 ;
21 [label="gini = 0.0\nsamples = 324\nvalue = [324, 0]\nclass = Not Good", fillcolor="#e58139"] ;
20 -> 21 ;
22 [label="gini = 0.198\nsamples = 9\nvalue = [8, 1]\nclass = Not Good", fillcolor="#e89152"] ;
20 -> 22 ;
23 [label="citric acid <= 1.916\ngini = 0.171\nsamples = 286\nvalue = [259, 27]\nclass = Not Good", fillcolor="#e88e4e"] ;
15 -> 23 ;
24 [label="sulphates <= -0.075\ngini = 0.147\nsamples = 275\nvalue = [253, 22]\nclass = Not Good", fillcolor="#e78c4a"] ;
23 -> 24 ;
25 [label="gini = 0.068\nsamples = 170\nvalue = [164, 6]\nclass = Not Good", fillcolor="#e68640"] ;
24 -> 25 ;
26 [label="gini = 0.258\nsamples = 105\nvalue = [89, 16]\nclass = Not Good", fillcolor="#ea985d"] ;
24 -> 26 ;
27 [label="residual sugar <= 0.308\ngini = 0.496\nsamples = 11\nvalue = [6, 5]\nclass = Not Good", fillcolor="#fbeade"] ;
23 -> 27 ;
28 [label="gini = 0.0\nsamples = 4\nvalue = [4, 0]\nclass = Not Good", fillcolor="#e58139"] ;
27 -> 28 ;
29 [label="gini = 0.408\nsamples = 7\nvalue = [2, 5]\nclass = Good", fillcolor="#88c4ef"] ;
27 -> 29 ;
30 [label="sulphates <= 0.16\ngini = 0.494\nsamples = 152\nvalue = [84.0, 68.0]\nclass = Not Good", fillcolor="#fae7d9"] ;
0 -> 30 [labeldistance=2.5, labelangle=-45, headlabel="False"] ;
31 [label="pH <= -0.294\ngini = 0.338\nsamples = 79\nvalue = [62, 17]\nclass = Not Good", fillcolor="#eca46f"] ;
30 -> 31 ;
32 [label="residual sugar <= 1.009\ngini = 0.499\nsamples = 21\nvalue = [11, 10]\nclass = Not Good", fillcolor="#fdf4ed"] ;
31 -> 32 ;
33 [label="alcohol <= 1.302\ngini = 0.457\nsamples = 17\nvalue = [11, 6]\nclass = Not Good", fillcolor="#f3c6a5"] ;
32 -> 33 ;
34 [label="gini = 0.408\nsamples = 7\nvalue = [2, 5]\nclass = Good", fillcolor="#88c4ef"] ;
33 -> 34 ;
35 [label="gini = 0.18\nsamples = 10\nvalue = [9, 1]\nclass = Not Good", fillcolor="#e88f4f"] ;
33 -> 35 ;
36 [label="gini = 0.0\nsamples = 4\nvalue = [0, 4]\nclass = Good", fillcolor="#399de5"] ;
32 -> 36 ;
37 [label="volatile acidity <= 1.594\ngini = 0.212\nsamples = 58\nvalue = [51, 7]\nclass = Not Good", fillcolor="#e99254"] ;
31 -> 37 ;
38 [label="total sulfur dioxide <= 1.727\ngini = 0.188\nsamples = 57\nvalue = [51, 6]\nclass = Not Good", fillcolor="#e89050"] ;
37 -> 38 ;
39 [label="gini = 0.163\nsamples = 56\nvalue = [51, 5]\nclass = Not Good", fillcolor="#e88d4c"] ;
38 -> 39 ;
40 [label="gini = 0.0\nsamples = 1\nvalue = [0, 1]\nclass = Good", fillcolor="#399de5"] ;
38 -> 40 ;
41 [label="gini = 0.0\nsamples = 1\nvalue = [0, 1]\nclass = Good", fillcolor="#399de5"] ;
37 -> 41 ;
42 [label="free sulfur dioxide <= 0.282\ngini = 0.421\nsamples = 73\nvalue = [22, 51]\nclass = Good", fillcolor="#8ec7f0"] ;
30 -> 42 ;
43 [label="density <= -1.06\ngini = 0.291\nsamples = 51\nvalue = [9, 42]\nclass = Good", fillcolor="#63b2eb"] ;
42 -> 43 ;
44 [label="gini = 0.0\nsamples = 20\nvalue = [0, 20]\nclass = Good", fillcolor="#399de5"] ;
43 -> 44 ;
45 [label="density <= -0.988\ngini = 0.412\nsamples = 31\nvalue = [9, 22]\nclass = Good", fillcolor="#8ac5f0"] ;
43 -> 45 ;
46 [label="gini = 0.0\nsamples = 4\nvalue = [4, 0]\nclass = Not Good", fillcolor="#e58139"] ;
45 -> 46 ;
47 [label="gini = 0.302\nsamples = 27\nvalue = [5, 22]\nclass = Good", fillcolor="#66b3eb"] ;
45 -> 47 ;
48 [label="pH <= 0.313\ngini = 0.483\nsamples = 22\nvalue = [13, 9]\nclass = Not Good", fillcolor="#f7d8c2"] ;
42 -> 48 ;
49 [label="alcohol <= 2.134\ngini = 0.444\nsamples = 12\nvalue = [4, 8]\nclass = Good", fillcolor="#9ccef2"] ;
48 -> 49 ;
50 [label="gini = 0.32\nsamples = 10\nvalue = [2, 8]\nclass = Good", fillcolor="#6ab6ec"] ;
49 -> 50 ;
51 [label="gini = 0.0\nsamples = 2\nvalue = [2, 0]\nclass = Not Good", fillcolor="#e58139"] ;
49 -> 51 ;
52 [label="fixed acidity <= -1.838\ngini = 0.18\nsamples = 10\nvalue = [9, 1]\nclass = Not Good", fillcolor="#e88f4f"] ;
48 -> 52 ;
53 [label="gini = 0.0\nsamples = 1\nvalue = [0, 1]\nclass = Good", fillcolor="#399de5"] ;
52 -> 53 ;
54 [label="gini = 0.0\nsamples = 9\nvalue = [9, 0]\nclass = Not Good", fillcolor="#e58139"] ;
52 -> 54 ;
}